digraph Tree {
node [shape=box] ;
0 [label="X[3] <= 0.8\nmse = 0.667\nsamples = 120\nvalue = 1.0"] ;
1 [label="mse = 0.0\nsamples = 40\nvalue = 0.0"] ;
0 -> 1 [labeldistance=2.5, labelangle=45, headlabel="True"] ;
2 [label="X[3] <= 1.65\nmse = 0.25\nsamples = 80\nvalue = 1.5"] ;
0 -> 2 [labeldistance=2.5, labelangle=-45, headlabel="False"] ;
3 [label="X[2] <= 4.95\nmse = 0.084\nsamples = 43\nvalue = 1.093"] ;
2 -> 3 ;
4 [label="mse = 0.0\nsamples = 38\nvalue = 1.0"] ;
3 -> 4 ;
5 [label="X[0] <= 6.05\nmse = 0.16\nsamples = 5\nvalue = 1.8"] ;
3 -> 5 ;
6 [label="X[3] <= 1.55\nmse = 0.25\nsamples = 2\nvalue = 1.5"] ;
5 -> 6 ;
7 [label="mse = 0.0\nsamples = 1\nvalue = 2.0"] ;
6 -> 7 ;
8 [label="mse = 0.0\nsamples = 1\nvalue = 1.0"] ;
6 -> 8 ;
9 [label="mse = 0.0\nsamples = 3\nvalue = 2.0"] ;
5 -> 9 ;
10 [label="X[2] <= 4.85\nmse = 0.026\nsamples = 37\nvalue = 1.973"] ;
2 -> 10 ;
11 [label="X[1] <= 3.1\nmse = 0.188\nsamples = 4\nvalue = 1.75"] ;
10 -> 11 ;
12 [label="mse = 0.0\nsamples = 3\nvalue = 2.0"] ;
11 -> 12 ;
13 [label="mse = 0.0\nsamples = 1\nvalue = 1.0"] ;
11 -> 13 ;
14 [label="mse = 0.0\nsamples = 33\nvalue = 2.0"] ;
10 -> 14 ;
}